digraph Tree {
node [shape=box, style="filled, rounded", color="black", fontname="helvetica"] ;
graph [ranksep=equally, splines=polyline] ;
edge [fontname="helvetica"] ;
0 [label="AGE <= 58.5\ngini = 0.136\nsamples = 463748\nvalue = [53767, 680235]\nclass = No", fillcolor="#49a5e7"] ;
1 [label="PNEUMONIA <= 1.5\ngini = 0.069\nsamples = 388574\nvalue = [22017, 592780]\nclass = No", fillcolor="#40a1e6"] ;
0 -> 1 [labeldistance=2.5, labelangle=45, headlabel="True"] ;
2 [label="AGE <= 44.5\ngini = 0.397\nsamples = 35771\nvalue = [15440, 41064]\nclass = No", fillcolor="#83c2ef"] ;
1 -> 2 ;
3 [label="HIPERTENSION <= 1.5\ngini = 0.289\nsamples = 17264\nvalue = [4758, 22408]\nclass = No", fillcolor="#63b2eb"] ;
2 -> 3 ;
4 [label="gini = 0.424\nsamples = 1840\nvalue = [882, 2006]\nclass = No", fillcolor="#90c8f0"] ;
3 -> 4 ;
5 [label="gini = 0.268\nsamples = 15424\nvalue = [3876, 20402]\nclass = No", fillcolor="#5fb0ea"] ;
3 -> 5 ;
6 [label="DIABETES <= 1.5\ngini = 0.463\nsamples = 18507\nvalue = [10682, 18656]\nclass = No", fillcolor="#aad5f4"] ;
2 -> 6 ;
7 [label="gini = 0.491\nsamples = 5887\nvalue = [4080, 5311]\nclass = No", fillcolor="#d1e8f9"] ;
6 -> 7 ;
8 [label="gini = 0.443\nsamples = 12620\nvalue = [6602, 13345]\nclass = No", fillcolor="#9bcdf2"] ;
6 -> 8 ;
9 [label="PATIENT_TYPE <= 1.5\ngini = 0.023\nsamples = 352803\nvalue = [6577, 551716]\nclass = No", fillcolor="#3b9ee5"] ;
1 -> 9 ;
10 [label="RENAL_CHRONIC <= 1.5\ngini = 0.004\nsamples = 329343\nvalue = [1064, 519793]\nclass = No", fillcolor="#399de5"] ;
9 -> 10 ;
11 [label="gini = 0.042\nsamples = 2028\nvalue = [67, 3078]\nclass = No", fillcolor="#3d9fe6"] ;
10 -> 11 ;
12 [label="gini = 0.004\nsamples = 327315\nvalue = [997, 516715]\nclass = No", fillcolor="#399de5"] ;
10 -> 12 ;
13 [label="CLASIFFICATION_FINAL <= 6.5\ngini = 0.251\nsamples = 23460\nvalue = [5513, 31923]\nclass = No", fillcolor="#5baee9"] ;
9 -> 13 ;
14 [label="gini = 0.314\nsamples = 12979\nvalue = [4037, 16642]\nclass = No", fillcolor="#69b5eb"] ;
13 -> 14 ;
15 [label="gini = 0.161\nsamples = 10481\nvalue = [1476, 15281]\nclass = No", fillcolor="#4ca6e8"] ;
13 -> 15 ;
16 [label="PNEUMONIA <= 1.5\ngini = 0.391\nsamples = 75174\nvalue = [31750, 87455]\nclass = No", fillcolor="#81c1ee"] ;
0 -> 16 [labeldistance=2.5, labelangle=-45, headlabel="False"] ;
17 [label="PREGNANT <= 49.5\ngini = 0.497\nsamples = 26004\nvalue = [22111, 19094]\nclass = Yes", fillcolor="#fbeee4"] ;
16 -> 17 ;
18 [label="COPD <= 50.0\ngini = 0.5\nsamples = 10441\nvalue = [8403, 8247]\nclass = Yes", fillcolor="#fffdfb"] ;
17 -> 18 ;
19 [label="gini = 0.5\nsamples = 10384\nvalue = [8336, 8218]\nclass = Yes", fillcolor="#fffdfc"] ;
18 -> 19 ;
20 [label="gini = 0.422\nsamples = 57\nvalue = [67, 29]\nclass = Yes", fillcolor="#f0b88f"] ;
18 -> 20 ;
21 [label="COPD <= 50.0\ngini = 0.493\nsamples = 15563\nvalue = [13708, 10847]\nclass = Yes", fillcolor="#fae5d6"] ;
17 -> 21 ;
22 [label="gini = 0.493\nsamples = 15467\nvalue = [13604, 10811]\nclass = Yes", fillcolor="#fae5d6"] ;
21 -> 22 ;
23 [label="gini = 0.382\nsamples = 96\nvalue = [104, 36]\nclass = Yes", fillcolor="#eead7e"] ;
21 -> 23 ;
24 [label="AGE <= 67.5\ngini = 0.217\nsamples = 49170\nvalue = [9639, 68361]\nclass = No", fillcolor="#55abe9"] ;
16 -> 24 ;
25 [label="PATIENT_TYPE <= 1.5\ngini = 0.156\nsamples = 28111\nvalue = [3821, 40884]\nclass = No", fillcolor="#4ca6e7"] ;
24 -> 25 ;
26 [label="gini = 0.035\nsamples = 22244\nvalue = [627, 34742]\nclass = No", fillcolor="#3d9fe5"] ;
25 -> 26 ;
27 [label="gini = 0.45\nsamples = 5867\nvalue = [3194, 6142]\nclass = No", fillcolor="#a0d0f3"] ;
25 -> 27 ;
28 [label="PREGNANT <= 49.5\ngini = 0.288\nsamples = 21059\nvalue = [5818, 27477]\nclass = No", fillcolor="#63b2eb"] ;
24 -> 28 ;
29 [label="gini = 0.251\nsamples = 10100\nvalue = [2357, 13628]\nclass = No", fillcolor="#5baee9"] ;
28 -> 29 ;
30 [label="gini = 0.32\nsamples = 10959\nvalue = [3461, 13849]\nclass = No", fillcolor="#6ab5eb"] ;
28 -> 30 ;
{rank=same ; 0} ;
{rank=same ; 1; 16} ;
{rank=same ; 2; 9; 17; 24} ;
{rank=same ; 3; 6; 10; 13; 18; 21; 25; 28} ;
{rank=same ; 4; 5; 7; 8; 11; 12; 14; 15; 19; 20; 22; 23; 26; 27; 29; 30} ;
}