digraph Tree {
node [shape=box, style="filled, rounded", color="black", fontname="helvetica"] ;
graph [ranksep=equally, splines=polyline] ;
edge [fontname="helvetica"] ;
0 [label="PATIENT_TYPE <= 1.5\ngini = 0.137\nsamples = 463954\nvalue = [54225, 679777]\nclass = No", fillcolor="#49a5e7"] ;
1 [label="PNEUMONIA <= 1.5\ngini = 0.016\nsamples = 375598\nvalue = [4856, 589401]\nclass = No", fillcolor="#3b9ee5"] ;
0 -> 1 [labeldistance=2.5, labelangle=45, headlabel="True"] ;
2 [label="DIABETES <= 1.5\ngini = 0.252\nsamples = 10319\nvalue = [2430, 13970]\nclass = No", fillcolor="#5baeea"] ;
1 -> 2 ;
3 [label="AGE <= 65.5\ngini = 0.426\nsamples = 1792\nvalue = [882, 1988]\nclass = No", fillcolor="#91c8f1"] ;
2 -> 3 ;
4 [label="gini = 0.376\nsamples = 1276\nvalue = [513, 1529]\nclass = No", fillcolor="#7bbeee"] ;
3 -> 4 ;
5 [label="gini = 0.494\nsamples = 516\nvalue = [369, 459]\nclass = No", fillcolor="#d8ecfa"] ;
3 -> 5 ;
6 [label="RENAL_CHRONIC <= 50.0\ngini = 0.203\nsamples = 8527\nvalue = [1548, 11982]\nclass = No", fillcolor="#53aae8"] ;
2 -> 6 ;
7 [label="gini = 0.197\nsamples = 8464\nvalue = [1488, 11943]\nclass = No", fillcolor="#52a9e8"] ;
6 -> 7 ;
8 [label="gini = 0.478\nsamples = 63\nvalue = [60, 39]\nclass = Yes", fillcolor="#f6d3ba"] ;
6 -> 8 ;
9 [label="AGE <= 60.5\ngini = 0.008\nsamples = 365279\nvalue = [2426, 575431]\nclass = No", fillcolor="#3a9de5"] ;
1 -> 9 ;
10 [label="CLASIFFICATION_FINAL <= 3.5\ngini = 0.005\nsamples = 336673\nvalue = [1226, 531247]\nclass = No", fillcolor="#399de5"] ;
9 -> 10 ;
11 [label="gini = 0.009\nsamples = 108199\nvalue = [795, 170366]\nclass = No", fillcolor="#3a9de5"] ;
10 -> 11 ;
12 [label="gini = 0.002\nsamples = 228474\nvalue = [431, 360881]\nclass = No", fillcolor="#399de5"] ;
10 -> 12 ;
13 [label="CLASIFFICATION_FINAL <= 6.5\ngini = 0.051\nsamples = 28606\nvalue = [1200, 44184]\nclass = No", fillcolor="#3ea0e6"] ;
9 -> 13 ;
14 [label="gini = 0.081\nsamples = 14919\nvalue = [1008, 22707]\nclass = No", fillcolor="#42a1e6"] ;
13 -> 14 ;
15 [label="gini = 0.018\nsamples = 13687\nvalue = [192, 21477]\nclass = No", fillcolor="#3b9ee5"] ;
13 -> 15 ;
16 [label="PNEUMONIA <= 1.5\ngini = 0.457\nsamples = 88356\nvalue = [49369, 90376]\nclass = No", fillcolor="#a5d3f3"] ;
0 -> 16 [labeldistance=2.5, labelangle=-45, headlabel="False"] ;
17 [label="DIABETES <= 1.5\ngini = 0.492\nsamples = 51709\nvalue = [35593, 46254]\nclass = No", fillcolor="#d1e8f9"] ;
16 -> 17 ;
18 [label="HIPERTENSION <= 1.5\ngini = 0.5\nsamples = 16596\nvalue = [13400, 12851]\nclass = Yes", fillcolor="#fefaf7"] ;
17 -> 18 ;
19 [label="gini = 0.498\nsamples = 9823\nvalue = [8304, 7263]\nclass = Yes", fillcolor="#fcefe6"] ;
18 -> 19 ;
20 [label="gini = 0.499\nsamples = 6773\nvalue = [5096, 5588]\nclass = No", fillcolor="#eef6fd"] ;
18 -> 20 ;
21 [label="AGE <= 52.5\ngini = 0.48\nsamples = 35113\nvalue = [22193, 33403]\nclass = No", fillcolor="#bddef6"] ;
17 -> 21 ;
22 [label="gini = 0.381\nsamples = 16336\nvalue = [6625, 19198]\nclass = No", fillcolor="#7dbfee"] ;
21 -> 22 ;
23 [label="gini = 0.499\nsamples = 18777\nvalue = [15568, 14205]\nclass = Yes", fillcolor="#fdf4ee"] ;
21 -> 23 ;
24 [label="RENAL_CHRONIC <= 1.5\ngini = 0.363\nsamples = 36647\nvalue = [13776, 44122]\nclass = No", fillcolor="#77bced"] ;
16 -> 24 ;
25 [label="SEX <= 1.5\ngini = 0.461\nsamples = 2208\nvalue = [1247, 2222]\nclass = No", fillcolor="#a8d4f4"] ;
24 -> 25 ;
26 [label="gini = 0.438\nsamples = 965\nvalue = [491, 1023]\nclass = No", fillcolor="#98ccf1"] ;
25 -> 26 ;
27 [label="gini = 0.474\nsamples = 1243\nvalue = [756, 1199]\nclass = No", fillcolor="#b6dbf5"] ;
25 -> 27 ;
28 [label="HIPERTENSION <= 1.5\ngini = 0.354\nsamples = 34439\nvalue = [12529, 41900]\nclass = No", fillcolor="#74baed"] ;
24 -> 28 ;
29 [label="gini = 0.451\nsamples = 9058\nvalue = [4950, 9437]\nclass = No", fillcolor="#a1d0f3"] ;
28 -> 29 ;
30 [label="gini = 0.307\nsamples = 25381\nvalue = [7579, 32463]\nclass = No", fillcolor="#67b4eb"] ;
28 -> 30 ;
{rank=same ; 0} ;
{rank=same ; 1; 16} ;
{rank=same ; 2; 9; 17; 24} ;
{rank=same ; 3; 6; 10; 13; 18; 21; 25; 28} ;
{rank=same ; 4; 5; 7; 8; 11; 12; 14; 15; 19; 20; 22; 23; 26; 27; 29; 30} ;
}